w_rx
[[ 0.05432089 -0.274942   -0.165854   ...  0.04771464  0.17281883
  -0.07194103]
 [ 0.06062235 -0.11113829 -0.08834238 ... -0.08517651  0.0453784
  -0.07385046]
 [ 0.13075946 -0.14685845 -0.10050693 ... -0.04006667 -0.09677322
  -0.09185125]
 ...
 [ 0.12542138 -0.24708884 -0.14980301 ...  0.00144121  0.04652753
  -0.06099615]
 [-0.05656283  0.47184002  0.24001531 ... -0.05136434 -0.02024382
   0.11063169]
 [ 0.09252732  0.2881425   0.13424024 ... -0.05213538 -0.0854302
   0.01688   ]]
w_rh
[[ 6.32512872e-03 -5.71248580e-03  1.63264626e-02  4.93780302e-03
  -1.40250689e-02 -2.72114347e-03 -5.51555055e-03 -4.13147438e-03
   2.11526970e-03 -5.36722369e-03]
 [ 7.73350076e-04 -6.86620215e-04  3.02610456e-03 -4.27262647e-03
  -7.07351022e-04 -5.28276525e-04 -1.26250624e-03  3.06025857e-03
  -1.11504566e-03  2.78527119e-03]
 [ 8.38984987e-03 -1.11684062e-02 -5.37443808e-03 -2.74447477e-03
   1.65035473e-02 -2.95839157e-04  1.71202714e-02 -1.54228854e-02
   8.65492035e-04 -1.34736562e-02]
 [ 2.56607457e-03 -1.22352461e-02  8.92380647e-03 -6.74209917e-03
   9.21137211e-03  5.26301643e-03  3.97367076e-03 -8.80672626e-03
   2.83718328e-03 -3.54569272e-03]
 [ 8.93819191e-03 -1.57635752e-02  1.41258284e-02 -4.84986750e-03
  -2.74023265e-03  2.47521707e-03 -4.20474010e-03 -1.16466307e-02
   3.77971560e-05 -4.57624636e-03]
 [ 2.08633577e-02 -2.87109027e-02 -6.43903088e-03  1.08912878e-02
   6.93016028e-03 -1.05365813e-02  1.83370358e-02 -2.66489767e-02
   2.72467684e-03 -3.76182566e-02]
 [-4.91804626e-04  2.74116809e-03  1.25044442e-02 -1.10702021e-02
  -7.63303901e-03 -4.85368909e-04 -1.02670969e-02  8.64645708e-03
   2.28548998e-03  1.90420618e-02]
 [ 4.19420149e-03 -4.79974885e-03  1.34082981e-02  1.34130558e-03
  -7.44880747e-03  3.27368525e-03 -4.52935102e-03 -6.91462008e-03
   4.32019648e-03 -8.20451352e-03]
 [-1.58070107e-02  3.08525667e-02  6.64972953e-03 -2.48625632e-02
   5.42746535e-03  1.53179558e-02 -1.53987951e-02  2.70156366e-02
   2.86749783e-03  4.36745441e-02]
 [-1.32783742e-02  1.43190613e-02 -9.31307801e-03  2.60436740e-03
   4.72350252e-05  1.51163481e-02 -8.46374677e-03  3.33634829e-03
  -9.05811792e-03 -4.04899399e-03]]
b_r
[ 0.05156336 -0.02784378 -0.02187433 -0.0723323   0.05431896 -0.01023276
  0.09594433 -0.04169998 -0.05165475  0.05281502]
w_oh
[[ 4.42600470e-01  7.71022672e-01  1.31563754e+00 -5.54594154e-01
  -2.73805827e-01  2.50194103e-01 -7.46788418e-01  1.16778681e+00
   1.34333419e-01  1.41320085e+00]
 [-8.24872548e-01 -4.23261465e-01 -6.22473772e-01 -2.89331226e-01
  -8.84144934e-01 -1.47124372e+00 -1.74443593e-02 -7.72304102e-01
   1.52038966e+00  9.64132947e-01]
 [-3.66338249e-03 -3.46575909e-02 -1.92375992e-02  1.01096918e-02
   6.69647922e-03  3.28127256e-02  1.54375250e-03 -3.10103934e-02
  -5.09554774e-02  1.25843558e-03]
 [-3.84307963e-03 -3.50823647e-02 -1.97072727e-02  1.02940016e-02
   6.47657232e-03  3.28636927e-02  1.79958041e-03 -3.15201937e-02
  -5.09091606e-02  7.98745853e-04]
 [-5.65329416e-02  1.12347079e+00  6.16514728e-01 -8.03513671e-01
  -9.62670337e-01  5.71502415e-01  5.13055192e-01 -9.96903599e-01
   1.65606232e-01 -8.27140170e-01]
 [-1.29711819e+00  5.38532112e-01 -8.51488143e-01 -6.10981119e-01
   6.86518709e-01  6.16122159e-01 -5.14565662e-01  7.16510682e-01
   4.68017754e-01 -4.83287763e-01]
 [-5.82541398e-01 -8.55891151e-02  1.30050423e+00  1.46851556e+00
   7.38354509e-01  2.06407315e-01  2.86898967e-01 -8.91539013e-02
   1.07373486e+00 -3.60002747e-01]
 [ 1.57101507e-02  6.03718817e-01 -7.46425591e-02  9.77334556e-01
  -8.75036958e-01 -5.42836572e-01 -5.89504009e-01  3.17100655e-01
  -2.17097051e-01 -4.29504223e-01]
 [ 6.18920551e-03 -1.48885987e-01 -8.61775721e-02  4.54505486e-02
   3.24494317e-02  1.55291344e-01  1.21955835e-02 -1.37758920e-01
  -2.46538504e-01  2.95543802e-02]
 [-2.23607217e-03 -1.02189788e-01 -5.37716433e-02  2.55479975e-02
   1.78648673e-02  1.04380559e-01  2.00708888e-03 -9.10605509e-02
  -1.63573820e-01  2.26777302e-02]
 [ 4.06492061e-01 -2.97179139e-01  3.38646247e-01 -5.83038901e-01
   4.13960201e-01 -4.64483472e-01 -1.14145013e+00 -2.81116567e-01
   2.24897689e-01 -8.27799949e-01]
 [ 1.15214797e+00  1.04589613e+00 -7.09612726e-01  1.09095668e-01
   1.02086470e+00 -1.16060991e+00  1.18681977e+00  5.89010812e-01
   3.29366709e-01 -4.40124506e-01]
 [-6.05869492e-01 -3.97523520e-01  3.68102398e-01 -3.37619746e-01
  -8.43072969e-02 -3.63246062e-01  5.84130646e-01  6.81049197e-01
  -2.78757966e-01 -2.05214149e-01]
 [-2.77030349e-03 -3.21177038e-02 -1.88767471e-02  8.92208383e-03
   7.12762277e-03  2.84463821e-02  2.28975711e-03 -2.68865138e-02
  -4.54358222e-02  1.55933325e-03]
 [-1.71972873e-03 -4.36113019e-02 -2.57337633e-02  8.35803490e-03
   4.92294688e-03  3.84104161e-02  2.78867150e-03 -4.17321206e-02
  -6.54157163e-02  1.46047451e-02]
 [-3.12928111e-03 -1.60963774e-02 -8.93051499e-03  3.77676621e-03
   2.77845194e-03  1.36409855e-02  1.55250147e-03 -1.41272362e-02
  -2.10456015e-02 -1.20481258e-03]
 [ 5.17340932e-01 -5.71253067e-01 -1.33234688e-01  1.71415550e-02
  -4.80801632e-01  3.44633872e-01  9.59463714e-02  5.02015174e-01
   6.28824086e-01 -2.86942508e-01]
 [-8.26290512e-03 -9.96554663e-02 -5.95279874e-02  2.64722849e-02
   1.81963389e-02  9.06519007e-02  6.71827572e-03 -9.14876495e-02
  -1.45241377e-01  1.07955619e-02]
 [-4.69022560e-04 -8.78220218e-02 -4.49776339e-02  1.74657797e-02
   1.41742605e-02  9.08329799e-02 -9.48883345e-04 -7.88143198e-02
  -1.39503979e-01  2.63009029e-02]
 [-4.41274570e-05 -4.20644191e-04 -3.66303808e-04  1.82254683e-04
   2.12368612e-04  2.87761891e-04  1.31266963e-04 -3.49014943e-04
  -5.86456816e-04 -9.30622884e-05]
 [-1.44852061e-03 -1.39136256e-02 -7.79725756e-03  3.36288505e-03
   2.14835192e-03  1.35467519e-02  3.90808741e-04 -1.25921958e-02
  -1.98744089e-02  1.55710546e-04]
 [-1.65681328e-03 -1.39694362e-02 -7.78542025e-03  3.34983221e-03
   1.95009450e-03  1.37055007e-02  4.01780503e-04 -1.28819787e-02
  -1.98992016e-02 -1.03978551e-06]
 [ 8.08905937e-04 -5.28642553e-03 -3.50574144e-03  1.73406433e-03
   1.46958303e-03  4.74319386e-03  5.60396586e-04 -4.30533701e-03
  -8.68961666e-03  1.04762597e-03]
 [-4.82859106e-03 -2.45976601e-02 -1.42857315e-02  7.22906474e-03
   5.03594284e-03  2.36789659e-02  6.40947298e-04 -2.37812987e-02
  -3.70745127e-02  9.65347936e-04]
 [ 9.08507572e-04 -6.78893090e-02 -3.92231367e-02  1.66535733e-02
   1.26320183e-02  6.56355138e-02  6.46289539e-03 -6.07013805e-02
  -1.02816273e-01  7.96756510e-03]
 [ 4.96949496e-03 -1.65274082e-02 -1.05274537e-02  4.05472206e-03
   2.67737457e-03  1.82045458e-02  2.84117829e-03 -1.52252680e-02
  -2.87653055e-02  2.48448642e-03]
 [-3.44058506e-03 -2.77241837e-02 -1.72611785e-02  7.62903378e-03
   7.09205692e-03  2.54789052e-02  3.47149621e-03 -2.53422148e-02
  -4.19384209e-02  3.34005046e-05]
 [ 4.46419529e-04 -7.95550451e-03 -4.07705562e-03  1.72854998e-03
   1.34250829e-03  8.53768613e-03 -9.66449897e-05 -7.04743758e-03
  -1.26837239e-02  1.57518345e-03]
 [-3.14586902e-04 -2.71204570e-02 -1.39265291e-02  8.30497653e-03
   5.98436435e-03  2.80647718e-02  1.42102539e-03 -2.42211221e-02
  -4.11636596e-02  2.27835115e-03]
 [-8.45282889e-04 -3.57349497e-03 -1.79916460e-03  1.02347427e-03
   6.19643479e-04  3.25183349e-03 -9.60721518e-05 -2.96106524e-03
  -4.83262750e-03  4.06312286e-05]
 [-1.86985792e-03 -1.19682551e-02 -7.17213752e-03  3.39449101e-03
   2.45645564e-03  1.00891925e-02  8.55489278e-04 -1.01984489e-02
  -1.61443408e-02 -1.43502223e-04]
 [ 1.16888547e-03 -4.56370617e-02 -2.89643612e-02  1.35021262e-02
   9.66105129e-03  4.54523902e-02  4.19840324e-03 -4.24811617e-02
  -7.20862621e-02  4.38808016e-03]
 [-9.02203907e-04 -2.62261584e-03 -1.19856963e-03  6.09992122e-04
   1.33442580e-04  2.42168325e-03 -1.30200510e-04 -2.41913056e-03
  -3.19001229e-03 -2.64065477e-04]
 [ 4.58504635e-05 -5.78055843e-03 -3.34611926e-03  1.03319544e-03
   1.87908544e-03  5.40364232e-03  1.35722181e-03 -5.03851781e-03
  -9.58487601e-03  3.40070882e-04]
 [-1.25970433e-03 -7.26440713e-03 -3.41390287e-03  2.01473762e-03
   9.71763199e-04  6.82691219e-03 -3.82712725e-04 -6.16589557e-03
  -9.89882970e-03  1.86629453e-04]
 [-1.92359823e-05 -3.72356493e-05 -1.22605292e-05  6.40254374e-06
  -5.74029503e-06  3.15556010e-05 -7.04486825e-06 -3.45775933e-05
  -3.42015468e-05 -3.78626148e-06]
 [-3.50029712e-04 -1.98360592e-03 -1.33015418e-03  8.09477135e-04
   7.05353552e-04  1.86870587e-03  3.34517600e-04 -1.91163356e-03
  -3.27490188e-03  4.26719342e-06]
 [-9.74195480e-04 -9.22102568e-03 -6.18932439e-03  3.10895741e-03
   3.08037908e-03  8.70069093e-03  1.36329231e-03 -8.45535148e-03
  -1.49091647e-02  1.80335619e-05]
 [-8.34717243e-04 -2.47145003e-03 -1.29839908e-03  6.79599898e-04
   2.97868787e-04  2.11885222e-03 -6.06954649e-06 -2.26603047e-03
  -3.04078158e-03 -2.65956610e-04]
 [-2.75888910e-06  1.82980512e-04  5.02198704e-04 -1.82689689e-04
  -2.17798464e-04  1.06604530e-04 -3.50630401e-04  3.40558110e-04
   1.48668411e-04  4.11512306e-04]
 [-6.85071746e-06 -1.64929045e-05 -1.25070797e-05  5.31023600e-06
   1.56145533e-06  9.74530580e-06  3.03107911e-06 -1.78277078e-05
  -1.49252938e-05 -7.78705862e-06]
 [-5.37726961e-05 -1.14811001e-04 -1.59792543e-05  1.23496525e-05
  -1.91601329e-05  1.47113023e-04 -3.02681105e-05 -1.12052394e-04
  -1.63061976e-04  1.60292728e-05]]
b_o
[ 2.64282756e-01  2.91562079e-01  7.39826185e-03  7.35867027e-03
 -1.15804403e-02  1.50280576e-01  2.23182978e-01  2.04916363e-01
  5.88476417e-02  3.10003019e-02  6.10697949e-02  1.26839851e-01
 -1.41778959e-02  5.96866434e-03  3.42077628e-02  1.23469558e-02
  4.07498746e-02  5.42651985e-02  5.44740405e-02  6.71399331e-05
  2.86408541e-03  2.85262979e-03  1.30339818e-03  5.48945762e-03
  5.08645253e-02  6.98402172e-03  1.60865131e-02  2.16702151e-03
  6.74596098e-03  6.15162863e-04  2.00794164e-03  1.36556640e-02
  3.70718422e-04  1.10760164e-02  1.37601848e-03  3.33251395e-06
  4.19451063e-04  1.93442295e-03  3.43848845e-04  1.62444166e-05
  9.81778384e-07  2.16095595e-05]
